/*!
 * The following copyright notice may not be removed under any circumstances.
 * 
 * Copyright:
 * Copyright © 2009 ParaType Ltd. All rights reserved.
 * 
 * Trademark:
 * PT Sans is a trademark of the ParaType Ltd.
 * 
 * Description:
 * PT Sans is a type family of universal use. It consists of 8 styles: regular and
 * bold weights with corresponding italics form a standard computer font family;
 * two narrow styles (regular and bold) are intended for documents that require
 * tight set; two caption styles (regular and bold) are for texts of small point
 * sizes. The design combines traditional conservative appearance with modern
 * trends of humanistic sans serif and characterized by enhanced legibility. These
 * features beside conventional use in business applications and printed stuff made
 * the fonts quite useable for direction and guide signs, schemes, screens of
 * information kiosks and other objects of urban visual communications.
 * 
 * The fonts next to standard Latin and Cyrillic character sets contain signs of
 * title languages of the national republics of Russian Federation and support the
 * most of the languages of neighboring countries. The fonts were developed and
 * released by ParaType in 2009 with financial support from Federal Agency of Print
 * and Mass Communications of Russian Federation. Design - Alexandra Korolkova with
 * assistance of Olga Umpeleva and supervision of Vladimir Yefimov.
 * 
 * Manufacturer:
 * ParaType Ltd
 * 
 * Designer:
 * A.Korolkova, O.Umpeleva, V.Yefimov
 * 
 * Vendor URL:
 * http://www.paratype.com
 */
Cufon.registerFont({"w":560,"face":{"font-family":"PT Sans","font-weight":400,"font-style":"italic","font-stretch":"normal","units-per-em":"1000","panose-1":"2 11 5 3 2 2 3 9 2 4","ascent":"800","descent":"-200","x-height":"12","bbox":"-114 -870 1006 230.128","underline-thickness":"50","underline-position":"-50","slope":"-12","unicode-range":"U+0020-U+2122"},"glyphs":{" ":{"w":267},"!":{"d":"237,-700r80,0r-73,347r-54,176r-46,0r20,-176xm145,12v-34,0,-58,-24,-58,-58v0,-35,23,-58,58,-58v35,0,58,23,58,58v0,34,-24,58,-58,58","w":273},"\"":{"d":"120,-700r74,0r-70,193r-45,0xm231,-700r74,0r-70,193r-45,0","w":303},"#":{"d":"336,-225r-106,0r-39,167r-68,0r39,-167r-78,0r14,-64r80,0r31,-131r-75,0r14,-64r76,0r38,-158r68,0r-38,158r106,0r38,-158r68,0r-38,158r77,0r-16,64r-76,0r-31,131r73,0r-16,64r-73,0r-39,167r-68,0xm246,-289r106,0r31,-131r-106,0"},"$":{"d":"367,-389v62,47,125,96,125,204v0,128,-88,185,-211,196r-18,89r-64,0r19,-91v-54,-6,-108,-36,-137,-60r35,-61v27,18,72,47,117,52r60,-281v-56,-43,-119,-84,-119,-181v0,-123,82,-177,197,-188r20,-90r64,0r-19,89v51,4,92,20,125,37r-34,63v-27,-12,-66,-25,-106,-29xm281,-58v74,-4,129,-46,129,-120v0,-66,-38,-99,-75,-132xm372,-641v-68,3,-116,42,-116,107v0,57,36,85,69,114"},"%":{"d":"501,-1v-69,0,-116,-46,-115,-118v1,-108,48,-177,122,-209v22,-9,44,-13,65,-13v76,0,116,43,116,119v-1,105,-43,174,-115,206v-23,10,-48,15,-73,15xm620,-218v3,-62,-56,-79,-100,-52v-40,26,-64,77,-65,143v0,41,18,71,58,68v77,-5,102,-75,107,-159xm175,-372v-69,0,-116,-46,-115,-118v1,-108,48,-177,122,-209v22,-9,44,-13,65,-13v76,0,116,43,116,119v-1,105,-43,175,-115,207v-23,10,-48,14,-73,14xm294,-589v3,-62,-56,-80,-100,-53v-40,26,-64,78,-65,144v0,41,18,71,58,68v77,-5,102,-75,107,-159xm601,-713r50,39r-513,686r-50,-39","w":736},"&":{"d":"495,-81v-65,60,-182,121,-303,81v-62,-20,-105,-68,-105,-148v0,-113,72,-182,140,-236v25,-20,52,-37,78,-50v-21,-49,-41,-120,-17,-181v23,-59,76,-97,159,-97v70,0,109,31,110,96v0,38,-14,74,-43,106v-29,32,-69,62,-119,89v30,86,75,166,123,234v42,-41,76,-99,107,-154r53,29v-35,58,-83,124,-127,173v37,46,59,69,102,98r-58,56v-37,-22,-72,-59,-100,-96xm167,-165v0,112,136,129,220,85v27,-14,53,-31,73,-51v-52,-72,-96,-164,-130,-252v-63,41,-121,89,-151,159v-8,19,-12,39,-12,59xm436,-648v-95,0,-96,115,-63,182v38,-23,66,-44,85,-65v19,-21,29,-44,29,-69v-1,-30,-17,-48,-51,-48","w":772},"'":{"d":"143,-700r74,0r-70,193r-45,0","w":202},"(":{"d":"148,-244v-32,152,-15,312,43,427r-46,35v-60,-86,-91,-172,-91,-291v0,-222,79,-388,175,-519v34,-45,70,-84,107,-118r37,35v-103,116,-187,255,-225,431","w":266},")":{"d":"143,-393v-1,-124,-12,-207,-56,-284r50,-33v84,108,103,315,61,484v-46,184,-138,334,-255,444r-38,-35v99,-106,178,-254,219,-419v13,-54,19,-106,19,-157","w":266},"*":{"d":"161,-715r25,42r18,56r21,-57r24,-40r48,26r-25,43r-47,48r68,-12r48,0r0,56r-45,0r-65,-12r46,48r24,39r-48,28r-25,-42r-24,-61r-18,58r-25,42r-50,-28r26,-42r43,-42r-59,12r-50,0r0,-56r50,0r63,12r-45,-44r-27,-46","w":333},"+":{"d":"55,-374r176,0r0,-181r72,0r0,181r176,0r0,72r-176,0r0,181r-72,0r0,-181r-176,0r0,-72","w":480},",":{"d":"68,7v-26,9,-52,-16,-51,-42v0,-36,26,-62,66,-62v57,0,59,70,41,117v-23,60,-69,106,-129,129r-16,-39v44,-14,80,-59,89,-103","w":186},"-":{"d":"79,-322r230,0r-17,68r-229,0","w":342},".":{"d":"93,12v-34,0,-58,-24,-58,-58v0,-35,23,-58,58,-58v35,0,58,23,58,58v0,34,-24,58,-58,58","w":211},"\/":{"d":"428,-712r57,31r-521,825r-57,-32","w":336},"0":{"d":"377,-712v128,0,178,86,177,230v-3,193,-60,361,-169,450v-55,45,-148,59,-213,24v-66,-35,-95,-112,-95,-211v0,-203,60,-370,179,-455v37,-25,77,-38,121,-38xm476,-472v-1,-103,-16,-170,-111,-170v-71,0,-114,60,-145,118v-40,76,-66,183,-65,301v0,97,26,165,115,165v76,0,119,-68,148,-130v34,-74,59,-178,58,-284"},"1":{"d":"98,-74r133,0r104,-484r22,-59r-49,47r-120,79r-28,-51r247,-170r34,0r-136,638r130,0r-15,74r-337,0"},"2":{"d":"395,-712v90,-2,140,56,140,141v0,92,-57,169,-103,235v-56,79,-132,162,-199,226r-55,43r0,4r62,-11r205,0r-14,74r-379,0r6,-29r148,-145r90,-96v53,-60,107,-127,140,-198v14,-31,21,-60,21,-87v0,-58,-26,-88,-87,-87v-60,1,-99,27,-142,54r-21,-60v57,-41,103,-62,188,-64"},"3":{"d":"99,-84v29,15,67,27,113,26v115,-2,187,-65,187,-175v0,-78,-36,-109,-123,-108r-72,0r6,-29r182,-222r52,-44r-63,10r-185,0r14,-74r340,0r-6,29r-201,242r-39,29r0,2r33,-7v93,4,140,62,140,160v0,124,-63,200,-156,237v-71,28,-194,25,-258,-5"},"4":{"d":"534,-215r-113,0r-45,215r-73,0r45,-215r-294,0r7,-33r415,-463r51,0r-91,428r112,0xm410,-503r27,-82r-4,0r-47,68r-173,191r-55,50r67,-7r138,0"},"5":{"d":"101,-80v45,24,131,32,185,8v66,-28,112,-84,111,-175v0,-83,-45,-113,-134,-113r-80,5r73,-345r296,0r-16,74r-225,0r-43,200v129,-15,208,45,207,165v-1,182,-108,269,-284,273v-51,1,-91,-8,-124,-23"},"6":{"d":"336,-416v100,0,168,65,166,172v-2,120,-54,199,-140,237v-48,20,-113,27,-165,7v-74,-28,-115,-97,-115,-204v0,-145,64,-265,137,-346v70,-78,173,-146,293,-162r4,64v-129,24,-224,104,-289,196v-23,34,-41,68,-53,105v34,-39,89,-69,162,-69xm163,-268v-17,101,4,212,107,212v104,0,152,-75,152,-178v0,-69,-34,-116,-107,-114v-71,2,-121,36,-152,80"},"7":{"d":"89,0r362,-586r52,-49r-58,9r-265,0r15,-74r397,0r-5,27r-416,673r-82,0"},"8":{"d":"482,-198v0,140,-90,210,-236,210v-103,0,-165,-57,-165,-158v0,-111,82,-183,174,-221v-44,-35,-83,-73,-82,-154v2,-98,58,-153,133,-179v26,-8,53,-12,81,-12v96,3,157,50,157,147v0,77,-46,124,-92,163v-18,15,-38,29,-60,41v46,39,90,81,90,163xm263,-58v83,-2,141,-41,141,-125v0,-82,-48,-117,-99,-150v-73,35,-146,86,-146,178v0,64,36,98,104,97xm378,-642v-76,0,-127,41,-127,117v0,74,41,100,90,133v46,-30,90,-68,115,-117v7,-14,10,-28,10,-42v1,-61,-30,-91,-88,-91"},"9":{"d":"449,-341v-43,37,-87,60,-166,57v-102,-3,-157,-74,-157,-183v0,-120,57,-195,144,-229v50,-19,115,-23,165,-2v70,30,111,97,111,198v1,159,-65,281,-144,364v-70,74,-171,134,-285,148r-4,-64v167,-39,282,-138,336,-289xm463,-414v22,-108,-1,-233,-111,-230v-72,2,-113,40,-135,94v-9,21,-13,45,-13,74v1,76,37,122,108,124v61,2,124,-29,151,-62"},":":{"d":"231,-391v-34,0,-58,-24,-58,-58v0,-35,23,-58,58,-58v35,0,58,23,58,58v0,34,-24,58,-58,58xm148,12v-34,0,-58,-24,-58,-58v0,-35,23,-58,58,-58v35,0,58,23,58,58v0,34,-24,58,-58,58","w":267},";":{"d":"143,7v-26,9,-52,-16,-51,-42v0,-36,26,-62,66,-62v57,0,60,70,42,117v-23,60,-70,106,-130,129r-16,-39v44,-14,80,-59,89,-103xm237,-391v-34,0,-58,-24,-58,-58v0,-35,23,-58,58,-58v35,0,58,23,58,58v0,34,-24,58,-58,58","w":273},"<":{"d":"54,-305r0,-29r379,-231r38,62r-237,145r-91,38r90,32r243,144r-38,60","w":480},"=":{"d":"55,-457r424,0r0,72r-424,0r0,-72xm55,-291r424,0r0,72r-424,0r0,-72","w":480},">":{"d":"478,-344r0,29r-379,231r-38,-61r237,-145r91,-38r-90,-32r-243,-144r38,-61","w":480},"?":{"d":"299,-712v90,0,144,42,144,122v0,184,-156,221,-228,336v-15,22,-24,48,-29,77r-63,0v17,-164,159,-207,223,-323v11,-20,17,-43,17,-69v-1,-56,-29,-80,-92,-79v-51,0,-98,24,-133,44r-19,-58v49,-30,100,-50,180,-50xm138,12v-34,0,-58,-24,-58,-58v0,-35,23,-58,58,-58v35,0,58,23,58,58v0,34,-24,58,-58,58","w":414},"@":{"d":"601,-498v49,0,73,17,102,38r33,-31r34,0r-58,333v-4,41,-9,89,36,86v92,-6,142,-73,170,-149v26,-72,20,-176,-10,-241v-51,-116,-164,-182,-328,-182v-186,0,-302,103,-360,240v-40,93,-41,227,-4,320v54,135,174,214,359,216v45,0,100,-12,133,-28r20,64v-95,45,-236,41,-339,4v-163,-58,-273,-189,-273,-408v0,-230,121,-373,288,-442v104,-43,239,-46,347,-8v148,52,255,164,255,360v0,143,-73,244,-169,296v-69,38,-204,50,-197,-59v0,-14,2,-28,4,-42r-4,0v-31,47,-71,92,-126,115v-32,14,-71,18,-102,2v-45,-24,-72,-73,-72,-141v0,-144,68,-255,160,-313v32,-20,66,-30,101,-30xm432,-260v-23,74,-30,188,59,188v36,0,62,-27,84,-50v28,-30,55,-70,75,-108r30,-163v-21,-24,-38,-37,-78,-37v-61,0,-104,44,-132,86v-16,25,-28,53,-38,84","w":1064},"A":{"d":"404,-194r-244,0r-108,194r-85,0r404,-711r37,0r101,711r-77,0xm199,-266r197,0r-29,-213r-2,-106r-1,0r-45,108","w":557},"B":{"d":"374,-708v108,2,187,49,187,157v0,110,-66,169,-161,185r0,4v62,16,110,58,110,134v0,204,-179,250,-392,234v-40,-3,-66,-8,-78,-11r146,-689v55,-9,120,-15,188,-14xm133,-71v28,6,70,7,103,7v107,0,190,-44,190,-153v0,-109,-125,-107,-240,-105xm477,-538v0,-112,-127,-104,-226,-92r-51,240r93,0v82,-3,140,-29,171,-84v9,-17,13,-39,13,-64","w":556},"C":{"d":"262,-78v65,32,165,12,212,-19r6,68v-60,46,-187,56,-265,19v-91,-42,-144,-133,-144,-264v0,-213,93,-350,241,-412v86,-37,215,-33,289,1r-36,73v-59,-31,-168,-37,-235,-2v-107,56,-175,169,-175,331v0,100,39,172,107,205","w":544},"D":{"d":"362,-708v169,1,258,89,258,259v0,222,-98,372,-269,437v-73,28,-228,21,-311,13r149,-701v47,-7,121,-8,173,-8xm536,-438v4,-145,-80,-194,-236,-194v-15,0,-35,1,-47,3r-118,560r41,3v76,4,141,-5,191,-35v105,-62,165,-182,169,-337","w":622},"E":{"d":"189,-700r361,0r-15,74r-283,0r-49,229r259,0r-15,74r-259,0r-53,249r288,0r-16,74r-367,0","w":510},"F":{"d":"189,-700r361,0r-15,74r-283,0r-51,239r264,0r-15,74r-264,0r-66,313r-80,0","w":492},"G":{"d":"576,-613v-60,-30,-172,-35,-240,-3v-113,53,-180,166,-181,334v1,97,36,168,101,202v51,27,137,20,180,-7r41,-195r-112,-20r10,-47r184,0r-65,308v-66,51,-180,72,-270,35v-95,-39,-153,-129,-153,-266v0,-222,96,-358,253,-417v89,-33,213,-29,287,3","w":583},"H":{"d":"505,-321r-318,0r-67,321r-80,0r148,-700r80,0r-64,305r317,0r64,-305r80,0r-148,700r-80,0","w":639},"I":{"d":"210,-700r80,0r-148,700r-80,0","w":277},"J":{"d":"222,-700r80,0r-116,546v-18,106,-78,183,-210,160v-13,-2,-28,-6,-37,-12r30,-71v18,14,66,18,89,5v33,-18,43,-58,52,-102","w":278},"K":{"d":"239,-324r-51,0r-68,324r-80,0r148,-700r80,0r-70,326r40,-14r287,-312r99,0r-286,304r-46,31r39,40r175,325r-91,0","w":576},"L":{"d":"434,0r-394,0r148,-700r80,0r-133,626r314,0","w":492},"M":{"d":"651,-470r31,-105r-4,0r-56,96r-240,316r-24,0r-115,-316r-15,-96r-4,0r-8,104r-100,471r-76,0r149,-700r55,0r130,358v6,25,8,54,16,78r46,-80r273,-356r71,0r-149,700r-80,0","w":754},"N":{"d":"261,-458r-34,-103r-3,0r-12,103r-97,458r-75,0r151,-711r40,0r218,468r33,98r4,0r9,-98r98,-457r75,0r-151,711r-37,0","w":642},"O":{"d":"307,12v-163,0,-237,-100,-236,-268v2,-197,80,-347,209,-420v44,-24,92,-36,145,-36v157,3,222,101,222,264v0,197,-78,349,-203,424v-42,24,-87,36,-137,36xm563,-446v0,-118,-42,-194,-152,-194v-88,0,-146,56,-185,116v-42,66,-71,162,-71,267v0,116,45,197,154,197v88,0,144,-55,183,-115v43,-67,71,-163,71,-271","w":651},"P":{"d":"566,-527v0,217,-177,281,-390,261r-56,266r-80,0r147,-693v48,-12,106,-15,163,-15v129,1,216,52,216,181xm482,-519v0,-119,-118,-127,-229,-111r-61,291v80,13,174,2,222,-35v40,-31,68,-74,68,-145","w":532},"Q":{"d":"633,171v-123,35,-242,-16,-341,-43v-38,-10,-77,-15,-116,-6r15,-73v143,-26,228,61,373,60v27,0,56,-3,85,-10xm307,12v-163,0,-237,-100,-236,-268v2,-197,80,-347,209,-420v44,-24,92,-36,145,-36v157,3,222,101,222,264v0,197,-78,349,-203,424v-42,24,-87,36,-137,36xm563,-446v0,-118,-42,-194,-152,-194v-88,0,-146,56,-185,116v-42,66,-71,162,-71,267v0,116,45,197,154,197v88,0,144,-55,183,-115v43,-67,71,-163,71,-271","w":651},"R":{"d":"544,-535v0,128,-82,203,-201,222r36,36r108,277r-87,0r-120,-302r-94,-15r-66,317r-80,0r147,-693v52,-10,101,-15,159,-15v117,0,198,53,198,173xm460,-531v0,-83,-73,-114,-167,-103v-16,1,-29,2,-40,4r-55,258r69,0v113,-1,193,-43,193,-159","w":568},"S":{"d":"214,-60v93,-2,174,-27,174,-120v0,-54,-32,-81,-65,-106v-78,-58,-186,-92,-186,-227v0,-144,104,-197,248,-199v68,-1,135,11,176,32r-40,71v-33,-17,-93,-31,-151,-31v-82,0,-150,37,-149,117v0,55,32,84,65,109v77,58,186,90,186,224v0,143,-114,202,-271,202v-75,0,-142,-14,-184,-37r41,-73v36,20,93,40,156,38","w":505},"T":{"d":"602,-626r-207,0r-132,626r-80,0r132,-626r-205,0r15,-74r492,0","w":528},"U":{"d":"167,-177v0,86,45,112,131,112v125,0,158,-85,181,-191r94,-444r76,0r-98,467v-30,145,-92,242,-265,242v-126,0,-199,-51,-199,-174v0,-27,4,-58,11,-93r93,-442r80,0r-93,443v-7,29,-11,56,-11,80","w":618},"V":{"d":"253,-221r0,107r2,0r45,-109r265,-477r86,0r-402,711r-37,0r-108,-711r82,0","w":541},"W":{"d":"214,-233r-9,116r1,0r39,-118r235,-465r43,0r37,467r-9,116r1,0r40,-118r213,-465r82,0r-336,711r-44,0r-38,-469r6,-106r-4,0r-40,107r-234,468r-44,0r-39,-711r82,0","w":788},"X":{"d":"289,-358r-130,-342r87,0r86,237r12,57r34,-57r191,-237r97,0r-279,339r142,361r-87,0r-96,-251r-14,-60r-38,60r-204,251r-97,0","w":588},"Y":{"d":"241,-278r-133,-422r87,0r89,306v2,20,0,43,4,61r30,-63r217,-304r90,0r-304,421r-59,279r-80,0","w":531},"Z":{"d":"14,-75r435,-511r49,-40r-366,0r15,-74r447,0r-15,75r-438,514r-47,37r367,0r-15,74r-447,0","w":520},"[":{"d":"214,-700r172,0r-15,70r-97,0r-168,790r98,0r-15,70r-173,0","w":291},"\\":{"d":"459,111r-68,29r-368,-824r68,-28","w":380},"]":{"d":"109,230r-172,0r15,-70r98,0r168,-790r-100,0r15,-70r174,0","w":293},"^":{"d":"288,-711r29,0r169,276r-83,0r-79,-135r-23,-69r-31,70r-93,134r-75,0","w":500},"_":{"d":"-44,137r408,0r0,68r-408,0r0,-68","w":408},"`":{"d":"418,-571r-43,0r-81,-128r4,-21r91,0","w":238},"a":{"d":"328,-85v-37,47,-84,97,-164,97v-79,0,-119,-52,-119,-155v0,-152,59,-273,157,-336v71,-45,191,-37,275,-10r-63,292v-13,59,-17,131,-12,199r-56,0r-14,-87r-4,0xm125,-143v0,46,17,93,62,91v58,-2,93,-42,122,-76v10,-13,18,-26,24,-37r56,-270v-46,-20,-118,-19,-157,13v-68,56,-106,158,-107,279","w":487},"b":{"d":"376,-512v140,-4,125,202,88,306v-30,86,-86,152,-160,190v-78,41,-207,26,-261,-15r142,-669r75,0r-61,286r4,0v40,-48,88,-95,173,-98xm409,-348v0,-56,-13,-100,-57,-100v-67,0,-110,50,-144,90v-13,16,-23,32,-31,47r-50,235v37,25,107,30,152,2v79,-49,130,-144,130,-274","w":521},"c":{"d":"230,-52v40,1,92,-24,116,-41r19,50v-38,30,-90,54,-153,55v-107,2,-162,-60,-162,-160v0,-165,66,-281,173,-339v62,-34,153,-30,210,-2r-28,62v-43,-23,-119,-32,-163,2v-64,50,-110,136,-112,246v-1,78,31,125,100,127","w":420},"d":{"d":"170,12v-86,0,-122,-67,-120,-169v3,-142,60,-258,150,-319v54,-37,148,-43,212,-16r44,-208r75,0r-112,528v-11,56,-19,112,-14,174r-50,0r-14,-87r-4,0v-37,47,-87,97,-167,97xm130,-152v0,51,18,102,68,100v55,-3,91,-43,120,-76v10,-13,18,-26,24,-37r56,-260v-41,-26,-126,-29,-167,5v-65,53,-100,152,-101,268","w":509},"e":{"d":"228,-52v54,0,109,-23,137,-45r24,48v-41,36,-107,60,-178,61v-107,1,-161,-67,-161,-174v1,-159,65,-270,168,-326v32,-16,65,-24,98,-24v84,1,139,39,139,120v0,47,-24,84,-69,112v-52,32,-155,45,-253,38v-22,89,-1,190,95,190xm378,-389v0,-41,-29,-60,-74,-59v-90,2,-134,67,-157,150v80,-1,166,-2,209,-40v15,-12,22,-29,22,-51","w":463},"f":{"d":"-92,132v46,16,112,24,134,-24v11,-25,23,-63,32,-116r70,-428r-77,0r13,-64r73,0v20,-105,28,-212,157,-212v45,0,88,10,120,24r-22,59v-52,-19,-116,-34,-147,7v-17,22,-26,80,-33,122r101,0r-12,64r-98,0r-80,470v-17,92,-44,172,-150,174v-42,0,-75,-6,-103,-20","w":278},"g":{"d":"168,11v-79,0,-122,-63,-120,-150v3,-155,65,-273,164,-337v73,-47,209,-37,279,-2r-106,501v-25,118,-80,185,-209,189v-73,2,-131,-25,-171,-45r33,-56v52,35,173,60,227,1v35,-39,55,-128,69,-197r-4,0v-37,48,-80,96,-162,96xm143,-263v-21,74,-33,210,53,210v85,0,124,-78,159,-136r51,-241v-46,-21,-120,-21,-162,9v-48,35,-82,91,-101,158","w":505},"h":{"d":"388,-512v71,0,106,31,105,109v0,28,-4,62,-13,101r-64,302r-75,0r60,-285v6,-33,13,-62,14,-95v0,-47,-17,-68,-62,-68v-69,0,-114,52,-149,95v-13,17,-26,33,-30,50r-63,303r-75,0r148,-700r75,0r-62,286r4,0v42,-49,98,-98,187,-98","w":529},"i":{"d":"160,-500r75,0r-106,500r-75,0xm230,-599v-30,0,-54,-24,-54,-54v0,-30,24,-55,54,-55v30,0,55,25,55,55v0,30,-25,54,-55,54","w":259},"j":{"d":"148,-500r75,0r-112,527v-25,116,-73,192,-207,179r15,-65v91,1,107,-68,123,-144xm218,-599v-30,0,-54,-24,-54,-54v0,-30,24,-55,54,-55v30,0,55,25,55,55v0,30,-25,54,-55,54","w":249},"k":{"d":"212,-225r-54,0r-47,225r-75,0r148,-700r75,0r-91,426r43,-11r180,-215r92,0r-178,203r-47,33r38,39r112,225r-83,0","w":449},"l":{"d":"127,9v-50,0,-78,-20,-77,-75v0,-13,2,-30,6,-49r124,-585r75,0r-122,581v-5,29,-6,64,21,64v30,0,42,-3,66,-12r0,57v-24,13,-59,19,-93,19","w":270},"m":{"d":"637,-301v10,-55,37,-147,-35,-147v-59,0,-99,53,-130,90v-12,15,-20,30,-27,43r-65,315r-75,0r60,-283v8,-38,16,-71,16,-109v0,-34,-10,-56,-44,-56v-63,0,-100,50,-133,87v-12,15,-20,28,-27,40r-66,321r-75,0r106,-500r53,0r-6,86r4,0v47,-46,93,-96,183,-98v63,-1,75,43,76,106v42,-49,95,-106,180,-106v67,0,96,28,95,101v0,28,-5,65,-15,111r-63,300r-75,0","w":763},"n":{"d":"378,-512v71,0,109,32,108,108v0,20,-3,44,-9,72r-71,332r-75,0r74,-352v9,-54,-2,-99,-61,-96v-65,4,-106,46,-138,84v-12,15,-21,29,-29,44r-66,320r-75,0r106,-500r52,0r-4,86r4,0v42,-49,94,-98,184,-98","w":522},"o":{"d":"212,12v-107,-1,-162,-65,-162,-168v0,-157,60,-273,160,-330v32,-17,66,-26,102,-26v105,1,154,65,154,168v0,153,-59,269,-154,328v-31,18,-64,28,-100,28xm372,-230v20,-85,36,-224,-75,-218v-55,3,-91,42,-117,83v-30,48,-50,116,-50,191v0,73,23,122,92,122v55,0,90,-44,114,-87v15,-27,28,-56,36,-91","w":498},"p":{"d":"308,-14v-56,33,-144,32,-194,6r-44,208r-75,0r149,-700r52,0r-5,86r4,0v39,-48,85,-98,170,-98v85,0,117,61,117,150v0,168,-68,286,-174,348xm386,-231v19,-70,40,-217,-49,-217v-65,0,-102,51,-133,92v-11,16,-19,31,-26,44r-49,237v38,31,105,29,149,1v51,-32,88,-88,108,-157","w":508},"q":{"d":"165,12v-138,3,-134,-175,-97,-286v29,-87,83,-157,154,-202v73,-47,194,-36,262,-1r-144,677r-75,0r61,-284r-4,0v-36,46,-78,94,-157,96xm126,-148v0,55,14,96,60,96v66,0,106,-57,137,-100v11,-17,20,-33,27,-47r50,-231v-46,-21,-111,-21,-152,10v-71,54,-120,150,-122,272","w":503},"r":{"d":"198,-414v33,-56,93,-113,184,-86r-20,66v-92,-21,-154,43,-182,106r-69,328r-75,0r106,-500r52,0r0,86r4,0","w":327},"s":{"d":"151,-52v63,0,109,-26,108,-89v-1,-60,-51,-79,-89,-105v-43,-30,-89,-59,-89,-131v0,-69,51,-107,107,-125v65,-21,160,-11,204,17r-25,60v-55,-32,-209,-43,-206,48v1,33,24,49,46,66v56,40,129,69,132,164v4,137,-141,180,-275,150v-25,-6,-46,-14,-61,-23r28,-63v26,17,75,32,120,31","w":398},"t":{"d":"266,-15v-26,15,-77,27,-117,27v-78,0,-101,-52,-86,-125r68,-323r-75,0r15,-64r74,0r21,-99r80,-23r-26,122r131,0r-15,64r-130,0r-63,302v-2,14,-5,26,-5,40v0,32,14,41,44,42v36,0,59,-10,84,-24r0,61","w":313},"u":{"d":"163,12v-70,0,-103,-36,-103,-108v0,-23,3,-50,10,-79r68,-325r75,0r-70,333v-11,51,-12,118,45,115v63,-3,103,-47,136,-85v12,-15,23,-30,31,-45r67,-318r75,0r-71,338v-3,16,-6,34,-8,52v-5,35,-8,73,-7,110r-59,0r0,-95r-4,0v-42,52,-95,107,-185,107","w":511},"v":{"d":"192,-207r9,95r2,0r43,-97r169,-291r86,0r-312,511r-32,0r-97,-511r80,0","w":447},"w":{"d":"427,-500r47,292r4,96r1,0r39,-98r147,-290r76,0r-269,511r-38,0r-53,-330r-1,-82r-2,0r-37,83r-190,329r-36,0r-58,-511r76,0r31,291r-2,97r4,0r40,-99r165,-289r56,0","w":685},"x":{"d":"203,-256r-107,-244r85,0v26,64,57,124,77,195r41,-57r121,-138r91,0r-212,240r119,260r-85,0v-30,-70,-65,-135,-88,-212r-42,60r-134,152r-91,0","w":484},"y":{"d":"194,-176r5,96r5,0r38,-97r166,-323r80,0r-288,542v-31,54,-64,106,-108,141v-31,25,-75,28,-112,13r24,-69v34,10,56,0,82,-26v19,-20,41,-54,65,-101r-86,-500r80,0","w":439},"z":{"d":"11,-69r281,-319r55,-43r-258,0r15,-69r337,0r-15,69r-284,322r-54,40r261,0r-14,69r-337,0","w":429},"{":{"d":"167,-234v32,5,55,45,47,87r-22,107r-33,152v-5,30,8,49,41,48r47,0r-16,70r-81,0v-58,3,-80,-47,-68,-104r50,-238v3,-12,4,-23,4,-32v3,-43,-21,-56,-61,-57r15,-68v49,0,80,-28,93,-85r52,-242v12,-57,47,-105,112,-105r81,0r-15,70v-34,1,-72,-5,-89,13v-9,9,-16,25,-21,46r-49,237v-8,51,-43,85,-86,95","w":326},"|":{"d":"115,-700r69,0r0,830r-69,0r0,-830","w":238},"}":{"d":"214,-701v58,-3,80,45,68,104r-50,238v-3,11,-4,21,-4,30v-2,43,21,58,62,59r-16,68v-59,1,-84,41,-96,97r-48,230v-12,57,-48,105,-113,105r-80,0r16,-70v33,-1,70,4,87,-14v9,-9,16,-24,20,-45r50,-237v10,-51,42,-85,87,-95r2,-6v-39,-5,-57,-52,-47,-99r54,-247v4,-31,-9,-48,-41,-48r-46,0r14,-70r81,0","w":331},"~":{"d":"187,-348v-46,0,-73,20,-107,47r-34,-60v45,-34,82,-57,142,-59v77,-2,112,55,185,55v36,0,57,-15,82,-36r34,61v-40,27,-73,46,-124,47v-75,2,-106,-55,-178,-55","w":480},"\u00a0":{"w":267},"\u00a1":{"d":"96,200r-78,0r74,-347r53,-176r47,0r-22,176xm189,-395v-34,0,-58,-24,-58,-58v0,-35,23,-58,58,-58v35,0,58,23,58,58v0,34,-24,58,-58,58","w":290},"\u00a2":{"d":"322,-54v34,-4,75,-25,98,-39r19,50v-30,26,-79,45,-125,52r-19,91r-66,0r19,-90v-82,-13,-127,-68,-127,-158v0,-152,56,-262,146,-324v29,-19,59,-31,91,-36r20,-92r67,0r-20,89v33,3,57,12,82,22r-28,62v-18,-11,-45,-18,-74,-20xm247,-351v-45,69,-84,268,24,296r82,-389v-46,13,-80,53,-106,93"},"\u00a3":{"d":"130,-86v73,-36,110,-138,87,-247r-94,0r15,-64r65,0v-12,-58,-9,-136,12,-185v43,-98,165,-151,303,-122v24,6,44,13,59,22r-27,64v-42,-22,-127,-36,-182,-14v-56,22,-92,71,-93,148v0,37,3,61,9,87r155,0r-15,64r-125,0v14,98,-11,193,-63,239r-45,34r-1,5r62,-14r244,0r-15,69r-424,0r15,-71v20,0,40,-5,58,-15"},"\u00a4":{"d":"173,-243v-43,-52,-38,-154,0,-205r-34,-21r-77,-78r49,-49r78,77r21,35v54,-44,151,-44,206,0r22,-35r78,-77r49,49r-77,78r-35,22v43,55,42,151,0,205r35,21r77,78r-49,48r-78,-77r-21,-33v-53,41,-155,42,-207,0r-21,33r-78,77r-49,-48r77,-78xm313,-451v-59,0,-102,47,-102,106v0,59,43,105,102,105v59,0,103,-46,103,-105v0,-59,-44,-106,-103,-106"},"\u00a5":{"d":"149,-328r89,0r-115,-372r87,0r92,306v2,20,0,43,4,61r30,-63r213,-304r90,0r-269,372r89,0r-13,60r-114,0r-13,63r114,0r-13,60r-114,0r-30,145r-80,0r30,-145r-116,0r12,-60r117,0r13,-63r-116,0"},"\u00a6":{"d":"115,-211r69,0r0,341r-69,0r0,-341xm184,-359r-69,0r0,-341r69,0r0,341","w":238},"\u00a7":{"d":"80,-85v52,33,210,56,207,-39v-2,-55,-58,-66,-99,-87v-50,-26,-100,-52,-100,-126v0,-65,37,-100,77,-129r46,-18v-40,-27,-55,-92,-28,-142v29,-52,86,-85,165,-86v63,-1,101,11,138,32r-29,61v-28,-15,-70,-25,-114,-25v-52,0,-96,29,-96,77v1,33,29,46,54,57v66,30,149,48,149,144v1,61,-39,107,-78,131r-54,18v29,21,47,44,47,93v0,97,-79,133,-177,136v-63,1,-104,-15,-140,-36xm280,-249v43,-20,90,-46,90,-106v0,-68,-68,-74,-116,-97v-42,19,-86,44,-86,104v0,66,63,79,112,99","w":473},"\u00a8":{"d":"241,-604v-27,0,-46,-23,-46,-49v0,-28,18,-51,46,-51v28,0,48,23,47,51v0,26,-20,49,-47,49xm424,-604v-28,0,-46,-23,-46,-50v0,-27,18,-50,46,-50v29,0,47,22,47,50v0,28,-18,50,-47,50","w":245},"\u00a9":{"d":"102,-142v-33,-86,-34,-213,3,-296v53,-121,159,-204,324,-204v164,0,272,84,324,204v37,84,37,212,0,296v-52,121,-159,204,-324,204v-170,0,-278,-78,-327,-204xm169,-412v-29,69,-29,175,0,244v41,99,126,164,260,164v133,0,219,-66,260,-164v29,-69,29,-175,0,-244v-41,-99,-126,-164,-260,-164v-133,0,-219,66,-260,164xm341,-290v0,74,32,121,103,122v31,0,58,-6,80,-18r21,59v-32,18,-68,27,-118,27v-111,1,-166,-77,-166,-190v0,-145,115,-227,250,-174r27,11r-26,61v-23,-12,-48,-19,-76,-19v-67,0,-95,41,-95,121","w":806},"\u00aa":{"d":"240,-652v-47,0,-81,11,-111,24r-5,-49v38,-18,85,-31,145,-31v55,0,96,26,96,74v0,88,-46,165,-49,254r-50,0r-3,-46r-3,0v-25,23,-58,50,-110,50v-77,0,-112,-79,-76,-139v34,-56,128,-73,217,-60v15,-43,4,-77,-51,-77xm129,-469v0,24,15,37,42,37v51,0,81,-29,100,-55r8,-42v-68,-2,-150,-6,-150,60","w":381},"\u00ab":{"d":"212,-259r198,-228r44,46r-123,144r-56,37r34,37r67,141r-54,42xm38,-259r200,-230r45,47r-124,145r-57,37r35,37r67,142r-54,43","w":454},"\u00ac":{"d":"67,-392r424,0r0,192r-70,0r0,-120r-354,0r0,-72","w":505},"\u00ad":{"d":"79,-322r230,0r-17,68r-229,0","w":342},"\u00ae":{"d":"158,-338v-27,-64,-28,-163,0,-226v39,-91,120,-152,244,-152v124,0,206,60,244,152v27,64,28,163,0,226v-39,91,-120,152,-244,152v-125,0,-206,-60,-244,-152xm402,-657v-130,3,-202,73,-202,206v0,131,75,206,202,206v130,0,202,-73,202,-206v0,-103,-49,-165,-124,-193v-24,-9,-50,-13,-78,-13xm501,-513v0,43,-32,65,-71,68r28,14r74,109r-61,0r-72,-104r-48,-15r0,119r-52,0r0,-259v75,-16,202,-25,202,68xm351,-471v45,0,96,4,95,-40v0,-23,-19,-35,-58,-35v-13,0,-28,0,-37,4r0,71","w":700},"\u00af":{"d":"324,-643r281,0r-13,62r-282,0","w":313},"\u00b0":{"d":"282,-430v-87,0,-141,-53,-141,-141v0,-87,55,-141,141,-141v87,0,141,53,141,141v0,88,-54,141,-141,141xm282,-652v-43,0,-77,34,-77,81v0,47,34,81,77,81v43,0,77,-34,77,-81v0,-47,-34,-81,-77,-81","w":425},"\u00b1":{"d":"55,-493r176,0r0,-181r72,0r0,181r176,0r0,72r-176,0r0,120r-72,0r0,-120r-176,0r0,-72xm55,-250r424,0r0,72r-424,0r0,-72","w":480},"\u00b2":{"d":"337,-807v61,0,100,31,100,94v0,53,-27,93,-53,129v-33,45,-75,92,-123,122r-50,31r0,3r57,-16r131,0r-14,64r-275,0r7,-33v87,-69,182,-136,237,-235v24,-42,19,-95,-42,-95v-37,0,-74,17,-98,31r-9,-57v33,-22,81,-38,132,-38","w":379},"\u00b3":{"d":"162,-452v20,11,50,19,82,19v67,0,109,-36,109,-93v0,-45,-25,-54,-80,-54r-52,0r4,-23r116,-117r38,-26v-49,9,-111,5,-169,6r13,-60r243,0r-7,33r-124,124v-9,7,-20,12,-27,20v62,-14,115,27,113,88v-3,110,-70,162,-187,162v-41,1,-71,-9,-98,-19","w":379},"\u00b4":{"d":"425,-720r84,0r-5,21r-123,128r-44,0","w":238},"\u00b5":{"d":"197,12v-57,0,-84,-29,-96,-70r-5,0r-7,125r-28,133r-75,0r148,-700r75,0r-59,287v-7,35,-10,44,-10,70v0,57,27,86,80,86v81,-1,135,-59,165,-119r69,-324r75,0r-72,337v-9,50,-20,106,-20,163r-51,0r-12,-74r-4,0v-34,44,-95,86,-173,86","w":525},"\u00b6":{"d":"378,-700r69,0r0,830r-69,0r0,-830xm222,-310v-77,-4,-117,-61,-136,-124v-33,-108,12,-213,88,-250v33,-16,70,-17,116,-16r0,830r-68,0r0,-440","w":495},"\u00b7":{"d":"156,-238v-34,0,-58,-24,-58,-58v0,-35,23,-58,58,-58v35,0,58,23,58,58v0,34,-24,58,-58,58","w":267},"\u00b8":{"d":"346,127v0,-31,-40,-37,-77,-37r65,-90r53,0r-33,43v36,4,62,28,62,70v0,82,-90,109,-179,91r17,-39v42,3,92,0,92,-38","w":363},"\u00b9":{"d":"150,-441r101,0r54,-254r14,-36r-31,28r-81,45r-21,-46r170,-103r39,0r-78,366r90,0r-13,61r-257,0","w":379},"\u00ba":{"d":"175,-372v-69,0,-116,-46,-115,-118v1,-108,48,-177,122,-209v22,-9,44,-13,65,-13v76,0,116,43,116,119v-1,105,-43,175,-115,207v-23,10,-48,14,-73,14xm294,-589v3,-62,-56,-80,-100,-53v-40,26,-64,78,-65,144v0,41,18,71,58,68v77,-5,102,-75,107,-159","w":379},"\u00bb":{"d":"280,-268r-198,228r-44,-45r123,-144r56,-38r-35,-43r-68,-141r57,-36xm454,-268r-200,230r-45,-46r124,-145r56,-38r-35,-44r-69,-142r58,-36","w":454},"\u00bc":{"d":"257,-595r15,-36r-31,28r-81,45r-24,-49r173,-100r39,0r-91,427r-66,0xm745,-96r-78,0r-21,96r-64,0r21,-96r-193,0r7,-37r278,-302r43,0r-59,280r79,0xm615,-155v14,-60,23,-125,44,-177r-2,0r-31,46r-96,105r-38,31v37,-5,80,-5,123,-5xm639,-713r52,36r-487,689r-52,-36","w":797},"\u00bd":{"d":"257,-595r15,-36r-31,28r-81,45r-24,-49r173,-100r39,0r-91,427r-66,0xm685,-427v61,0,100,31,100,94v0,53,-27,93,-53,129v-33,45,-75,92,-123,122r-50,31r0,3r57,-16r131,0r-14,64r-275,0r7,-33v87,-69,182,-136,237,-235v24,-42,19,-95,-42,-95v-37,0,-74,17,-98,31r-9,-57v33,-22,81,-38,132,-38xm639,-713r52,36r-487,689r-52,-36","w":809},"\u00be":{"d":"781,-96r-78,0r-21,96r-64,0r21,-96r-193,0r7,-37r278,-302r43,0r-59,280r79,0xm651,-155v14,-60,23,-125,44,-177r-2,0r-31,46r-96,105r-38,31v37,-5,80,-5,123,-5xm128,-352v20,11,50,19,82,19v67,0,109,-36,109,-93v0,-45,-25,-54,-80,-54r-52,0r4,-23r116,-117r38,-26v-49,9,-111,5,-169,6r13,-60r243,0r-7,33r-124,124v-9,7,-20,12,-27,20v62,-14,115,27,113,88v-3,110,-70,162,-187,162v-41,1,-71,-9,-98,-19xm675,-713r52,36r-487,689r-52,-36","w":833},"\u00bf":{"d":"130,212v-90,0,-144,-42,-144,-122v0,-184,157,-221,228,-336v14,-22,23,-48,28,-77r64,0v-17,163,-160,206,-224,322v-11,20,-16,43,-16,69v1,57,29,80,92,80v51,0,97,-24,132,-44r20,58v-49,30,-101,50,-180,50xm292,-396v-34,0,-58,-24,-58,-58v0,-35,23,-58,58,-58v35,0,58,23,58,58v0,34,-24,58,-58,58","w":413},"\u00c0":{"d":"404,-194r-244,0r-108,194r-85,0r404,-711r37,0r101,711r-77,0xm199,-266r197,0r-29,-213r-2,-106r-1,0r-45,108xm419,-752r-63,0r-129,-97r4,-21r101,0","w":557},"\u00c1":{"d":"404,-194r-244,0r-108,194r-85,0r404,-711r37,0r101,711r-77,0xm199,-266r197,0r-29,-213r-2,-106r-1,0r-45,108xm507,-870r116,0r-5,21r-175,97r-73,0","w":557},"\u00c2":{"d":"404,-194r-244,0r-108,194r-85,0r404,-711r37,0r101,711r-77,0xm199,-266r197,0r-29,-213r-2,-106r-1,0r-45,108xm393,-870r48,0r99,102r-4,21r-68,0r-46,-49r-10,-35r-25,34r-71,50r-75,0r5,-22","w":557},"\u00c3":{"d":"404,-194r-244,0r-108,194r-85,0r404,-711r37,0r101,711r-77,0xm199,-266r197,0r-29,-213r-2,-106r-1,0r-45,108xm339,-774v-31,0,-46,11,-68,30r-14,-41v42,-36,82,-65,147,-50v30,8,51,27,87,28v17,0,34,-7,53,-21r16,43v-34,27,-56,44,-101,44v-50,0,-73,-33,-120,-33","w":557},"\u00c4":{"d":"404,-194r-244,0r-108,194r-85,0r404,-711r37,0r101,711r-77,0xm199,-266r197,0r-29,-213r-2,-106r-1,0r-45,108xm314,-748v-29,0,-51,-19,-51,-46v0,-27,22,-47,51,-47v28,0,50,20,50,47v0,27,-22,46,-50,46xm496,-748v-28,0,-50,-19,-50,-46v0,-27,22,-47,50,-47v29,0,51,20,51,47v0,27,-22,46,-51,46","w":557},"\u00c5":{"d":"507,-768v0,53,-39,81,-96,83r98,685r-77,0r-28,-194r-244,0r-108,194r-85,0r392,-690v-42,-11,-63,-37,-63,-78v0,-56,40,-85,105,-85v62,0,106,26,106,85xm199,-265r197,0r-29,-214r-2,-106r-1,0r-45,108xm401,-810v-28,0,-44,16,-44,42v1,25,16,40,44,40v27,0,45,-15,45,-40v0,-27,-16,-42,-45,-42","w":557},"\u00c6":{"d":"459,-599r-51,101r-174,229r157,0r71,-330r-3,0xm377,-197r-199,0r-148,197r-92,0r541,-700r366,0r-15,73r-283,0r-49,230r259,0r-16,73r-258,0r-54,251r288,0r-15,73r-367,0","w":805},"\u00c7":{"d":"262,-78v65,32,165,12,212,-19r6,68v-41,29,-86,39,-152,41r-24,31v36,4,62,28,62,70v0,82,-90,109,-179,91r17,-39v42,3,92,0,92,-38v0,-31,-40,-37,-77,-37r58,-81v-135,-24,-206,-128,-206,-283v0,-213,93,-350,241,-412v86,-37,215,-33,289,1r-36,73v-59,-31,-168,-37,-235,-2v-107,56,-175,169,-175,331v0,100,39,172,107,205","w":544},"\u00c8":{"d":"189,-700r361,0r-15,74r-283,0r-49,229r259,0r-15,74r-259,0r-53,249r288,0r-16,74r-367,0xm423,-752r-63,0r-129,-97r4,-21r101,0","w":510},"\u00c9":{"d":"189,-700r361,0r-15,74r-283,0r-49,229r259,0r-15,74r-259,0r-53,249r288,0r-16,74r-367,0xm451,-870r116,0r-5,21r-175,97r-73,0","w":510},"\u00ca":{"d":"189,-700r361,0r-15,74r-283,0r-49,229r259,0r-15,74r-259,0r-53,249r288,0r-16,74r-367,0xm382,-870r48,0r99,102r-4,21r-68,0r-46,-49r-10,-35r-25,34r-71,50r-75,0r5,-22","w":510},"\u00cb":{"d":"189,-700r361,0r-15,74r-283,0r-49,229r259,0r-15,74r-259,0r-53,249r288,0r-16,74r-367,0xm291,-748v-29,0,-51,-19,-51,-46v0,-27,22,-47,51,-47v29,0,50,20,50,47v0,28,-21,46,-50,46xm473,-748v-29,0,-50,-18,-50,-46v0,-27,21,-47,50,-47v29,0,51,20,51,47v0,27,-22,46,-51,46","w":510},"\u00cc":{"d":"210,-700r80,0r-148,700r-80,0xm297,-752r-63,0r-129,-97r4,-21r101,0","w":277},"\u00cd":{"d":"210,-700r80,0r-148,700r-80,0xm344,-870r116,0r-5,21r-175,97r-73,0","w":277},"\u00ce":{"d":"210,-700r80,0r-148,700r-80,0xm263,-870r48,0r99,102r-4,21r-68,0r-46,-49r-10,-35r-25,34r-71,50r-75,0r5,-22","w":277},"\u00cf":{"d":"210,-700r80,0r-148,700r-80,0xm175,-748v-29,0,-51,-19,-51,-46v0,-27,22,-47,51,-47v29,0,50,20,50,47v0,28,-21,46,-50,46xm357,-748v-29,0,-50,-18,-50,-46v0,-27,21,-47,50,-47v29,0,51,20,51,47v0,27,-22,46,-51,46","w":277},"\u00d0":{"d":"366,-708v169,1,258,89,258,259v0,222,-98,373,-269,437v-74,28,-227,21,-311,13r71,-333r-87,0r13,-60r86,0r66,-308v47,-7,121,-8,173,-8xm540,-438v4,-145,-80,-194,-236,-194v-15,0,-35,1,-47,3r-50,237r137,0r-12,60r-138,0r-55,263r41,3v76,4,141,-5,191,-35v105,-62,165,-182,169,-337","w":626},"\u00d1":{"d":"261,-458r-34,-103r-3,0r-12,103r-97,458r-75,0r151,-711r40,0r218,468r33,98r4,0r9,-98r98,-457r75,0r-151,711r-37,0xm371,-774v-31,0,-46,11,-68,30r-14,-41v42,-36,82,-65,147,-50v30,8,51,27,87,28v17,0,34,-7,53,-21r16,43v-33,27,-57,44,-101,44v-50,0,-73,-33,-120,-33","w":642},"\u00d2":{"d":"307,12v-163,0,-237,-100,-236,-268v2,-197,80,-347,209,-420v44,-24,92,-36,145,-36v157,3,222,101,222,264v0,197,-78,349,-203,424v-42,24,-87,36,-137,36xm563,-446v0,-118,-42,-194,-152,-194v-88,0,-146,56,-185,116v-42,66,-71,162,-71,267v0,116,45,197,154,197v88,0,144,-55,183,-115v43,-67,71,-163,71,-271xm503,-752r-63,0r-129,-97r4,-21r101,0","w":651},"\u00d3":{"d":"307,12v-163,0,-237,-100,-236,-268v2,-197,80,-347,209,-420v44,-24,92,-36,145,-36v157,3,222,101,222,264v0,197,-78,349,-203,424v-42,24,-87,36,-137,36xm563,-446v0,-118,-42,-194,-152,-194v-88,0,-146,56,-185,116v-42,66,-71,162,-71,267v0,116,45,197,154,197v88,0,144,-55,183,-115v43,-67,71,-163,71,-271xm532,-870r116,0r-5,21r-175,97r-73,0","w":651},"\u00d4":{"d":"307,12v-163,0,-237,-100,-236,-268v2,-197,80,-347,209,-420v44,-24,92,-36,145,-36v157,3,222,101,222,264v0,197,-78,349,-203,424v-42,24,-87,36,-137,36xm563,-446v0,-118,-42,-194,-152,-194v-88,0,-146,56,-185,116v-42,66,-71,162,-71,267v0,116,45,197,154,197v88,0,144,-55,183,-115v43,-67,71,-163,71,-271xm447,-870r48,0r99,102r-4,21r-68,0r-46,-49r-10,-35r-25,34r-71,50r-75,0r5,-22","w":651},"\u00d5":{"d":"307,12v-163,0,-237,-100,-236,-268v2,-197,80,-347,209,-420v44,-24,92,-36,145,-36v157,3,222,101,222,264v0,197,-78,349,-203,424v-42,24,-87,36,-137,36xm563,-446v0,-118,-42,-194,-152,-194v-88,0,-146,56,-185,116v-42,66,-71,162,-71,267v0,116,45,197,154,197v88,0,144,-55,183,-115v43,-67,71,-163,71,-271xm409,-769v-40,-12,-72,1,-97,25r-14,-41v41,-37,82,-65,146,-50v31,8,52,27,88,28v17,0,34,-7,53,-21r16,43v-40,31,-78,61,-134,39","w":651},"\u00d6":{"d":"307,12v-163,0,-237,-100,-236,-268v2,-197,80,-347,209,-420v44,-24,92,-36,145,-36v157,3,222,101,222,264v0,197,-78,349,-203,424v-42,24,-87,36,-137,36xm563,-446v0,-118,-42,-194,-152,-194v-88,0,-146,56,-185,116v-42,66,-71,162,-71,267v0,116,45,197,154,197v88,0,144,-55,183,-115v43,-67,71,-163,71,-271xm358,-748v-29,0,-51,-19,-51,-46v0,-27,22,-47,51,-47v28,0,50,20,50,47v0,27,-22,46,-50,46xm540,-748v-28,0,-50,-19,-50,-46v0,-27,22,-47,50,-47v29,0,51,20,51,47v0,27,-22,46,-51,46","w":651},"\u00d7":{"d":"138,-517r127,127r127,-127r51,53r-126,125r126,127r-51,52r-127,-127r-126,128r-52,-51r127,-129r-127,-125","w":480},"\u00d8":{"d":"603,-627v57,80,52,247,19,357v-33,107,-93,194,-178,246v-81,49,-210,48,-282,-4r-29,39r-50,-39r34,-46v-59,-78,-55,-247,-21,-357v33,-108,96,-194,184,-245v79,-46,212,-50,280,3r29,-39r49,38xm510,-605v-47,-46,-145,-44,-203,-3v-94,67,-149,193,-152,351v0,42,6,78,18,108xm412,-91v108,-74,165,-233,147,-413v-3,-17,-7,-33,-12,-46r-337,456v51,46,144,43,202,3","w":651},"\u00d9":{"d":"167,-177v0,86,45,112,131,112v125,0,158,-85,181,-191r94,-444r76,0r-98,467v-30,145,-92,242,-265,242v-126,0,-199,-51,-199,-174v0,-27,4,-58,11,-93r93,-442r80,0r-93,443v-7,29,-11,56,-11,80xm499,-752r-63,0r-129,-97r4,-21r101,0","w":618},"\u00da":{"d":"167,-177v0,86,45,112,131,112v125,0,158,-85,181,-191r94,-444r76,0r-98,467v-30,145,-92,242,-265,242v-126,0,-199,-51,-199,-174v0,-27,4,-58,11,-93r93,-442r80,0r-93,443v-7,29,-11,56,-11,80xm508,-870r116,0r-5,21r-175,97r-73,0","w":618},"\u00db":{"d":"167,-177v0,86,45,112,131,112v125,0,158,-85,181,-191r94,-444r76,0r-98,467v-30,145,-92,242,-265,242v-126,0,-199,-51,-199,-174v0,-27,4,-58,11,-93r93,-442r80,0r-93,443v-7,29,-11,56,-11,80xm435,-870r48,0r99,102r-4,21r-68,0r-46,-49r-10,-35r-25,34r-71,50r-75,0r5,-22","w":618},"\u00dc":{"d":"167,-177v0,86,45,112,131,112v125,0,158,-85,181,-191r94,-444r76,0r-98,467v-30,145,-92,242,-265,242v-126,0,-199,-51,-199,-174v0,-27,4,-58,11,-93r93,-442r80,0r-93,443v-7,29,-11,56,-11,80xm347,-748v-29,0,-51,-19,-51,-46v0,-27,22,-47,51,-47v29,0,50,20,50,47v0,28,-21,46,-50,46xm529,-748v-29,0,-50,-18,-50,-46v0,-27,21,-47,50,-47v29,0,51,20,51,47v0,27,-22,46,-51,46","w":618},"\u00dd":{"d":"241,-278r-133,-422r87,0r89,306v2,20,0,43,4,61r30,-63r217,-304r90,0r-304,421r-59,279r-80,0xm474,-870r116,0r-5,21r-175,97r-73,0","w":531},"\u00de":{"d":"566,-527v-1,217,-177,281,-390,261r-56,266r-80,0r170,-800r80,0r-21,95v162,-16,298,21,297,178xm482,-519v0,-119,-118,-127,-229,-111r-61,291v80,13,174,2,222,-35v40,-31,68,-74,68,-145","w":532},"\u00df":{"d":"374,-52v63,0,109,-26,108,-89v-1,-60,-51,-79,-89,-105v-43,-30,-89,-59,-89,-131v0,-69,50,-107,106,-125v65,-21,161,-11,205,17r-25,60v-55,-32,-209,-43,-206,48v1,33,24,49,46,66v56,40,129,69,132,164v4,137,-142,180,-276,150v-25,-6,-45,-14,-60,-23r28,-63v26,17,75,32,120,31xm-92,132v47,17,113,24,134,-28v11,-27,23,-61,30,-104r72,-436r-76,0r13,-64r77,0v23,-109,49,-208,180,-206v44,0,67,5,98,19r-30,59v-31,-16,-86,-22,-116,-4v-39,23,-48,77,-58,132r-86,500v-21,107,-35,206,-157,208v-41,0,-76,-4,-103,-20","w":621},"\u00e0":{"d":"360,-571r-43,0r-81,-128r4,-21r91,0xm328,-85v-37,47,-84,97,-164,97v-79,0,-119,-52,-119,-155v0,-152,59,-273,157,-336v71,-45,191,-37,275,-10r-63,292v-13,59,-17,131,-12,199r-56,0r-14,-87r-4,0xm125,-143v0,46,17,93,62,91v58,-2,93,-42,122,-76v10,-13,18,-26,24,-37r56,-270v-46,-20,-118,-19,-157,13v-68,56,-106,158,-107,279","w":487},"\u00e1":{"d":"393,-720r84,0r-5,21r-123,128r-44,0xm328,-85v-37,47,-84,97,-164,97v-79,0,-119,-52,-119,-155v0,-152,59,-273,157,-336v71,-45,191,-37,275,-10r-63,292v-13,59,-17,131,-12,199r-56,0r-14,-87r-4,0xm125,-143v0,46,17,93,62,91v58,-2,93,-42,122,-76v10,-13,18,-26,24,-37r56,-270v-46,-20,-118,-19,-157,13v-68,56,-106,158,-107,279","w":487},"\u00e2":{"d":"359,-732r30,0r66,182r-63,0r-24,-66r-6,-58r-34,58r-57,66r-68,0xm328,-85v-37,47,-84,97,-164,97v-79,0,-119,-52,-119,-155v0,-152,59,-273,157,-336v71,-45,191,-37,275,-10r-63,292v-13,59,-17,131,-12,199r-56,0r-14,-87r-4,0xm125,-143v0,46,17,93,62,91v58,-2,93,-42,122,-76v10,-13,18,-26,24,-37r56,-270v-46,-20,-118,-19,-157,13v-68,56,-106,158,-107,279","w":487},"\u00e3":{"d":"294,-643v-27,0,-42,13,-63,29r-13,-42v33,-32,53,-58,97,-58v43,0,57,38,99,40v15,0,33,-8,54,-24r15,43v-30,29,-48,51,-88,51v-44,0,-57,-39,-101,-39xm328,-85v-37,47,-84,97,-164,97v-79,0,-119,-52,-119,-155v0,-152,59,-273,157,-336v71,-45,191,-37,275,-10r-63,292v-13,59,-17,131,-12,199r-56,0r-14,-87r-4,0xm125,-143v0,46,17,93,62,91v58,-2,93,-42,122,-76v10,-13,18,-26,24,-37r56,-270v-46,-20,-118,-19,-157,13v-68,56,-106,158,-107,279","w":487},"\u00e4":{"d":"232,-604v-27,0,-46,-23,-46,-49v0,-28,18,-51,46,-51v28,0,48,23,47,51v0,26,-20,49,-47,49xm415,-604v-28,0,-46,-23,-46,-50v0,-27,18,-50,46,-50v29,0,47,22,47,50v0,28,-18,50,-47,50xm328,-85v-37,47,-84,97,-164,97v-79,0,-119,-52,-119,-155v0,-152,59,-273,157,-336v71,-45,191,-37,275,-10r-63,292v-13,59,-17,131,-12,199r-56,0r-14,-87r-4,0xm125,-143v0,46,17,93,62,91v58,-2,93,-42,122,-76v10,-13,18,-26,24,-37r56,-270v-46,-20,-118,-19,-157,13v-68,56,-106,158,-107,279","w":487},"\u00e5":{"d":"328,-85v-37,47,-84,97,-164,97v-79,0,-119,-52,-119,-155v0,-152,59,-273,157,-336v71,-45,191,-37,275,-10r-63,292v-13,59,-17,131,-12,199r-56,0r-14,-87r-4,0xm125,-143v0,46,17,93,62,91v58,-2,93,-42,122,-76v10,-13,18,-26,24,-37r56,-270v-46,-20,-118,-19,-157,13v-68,56,-106,158,-107,279xm349,-553v-54,0,-97,-34,-97,-90v0,-58,39,-92,97,-91v57,0,98,30,98,91v0,52,-44,90,-98,90xm380,-676v-29,-20,-74,-8,-74,33v0,37,47,54,74,32v15,-12,18,-53,0,-65","w":487},"\u00e6":{"d":"108,-128v0,49,22,72,68,72v75,0,118,-62,152,-107r8,-68v-89,-7,-178,3,-214,55v-9,13,-14,29,-14,48xm490,12v-78,1,-133,-39,-151,-99r-7,0v-39,47,-102,96,-184,95v-76,-1,-120,-45,-120,-119v0,-158,155,-183,319,-178v13,-43,20,-76,20,-97v-1,-48,-29,-58,-82,-58v-56,0,-107,17,-147,35r-12,-60v51,-29,117,-38,192,-39v59,0,106,20,116,66v34,-43,97,-68,165,-70v87,-2,146,39,146,113v0,161,-172,161,-335,167v-3,20,-7,39,-7,61v1,78,38,119,123,119v43,0,97,-22,122,-40r17,54v-41,30,-107,50,-175,50xm668,-388v0,-43,-27,-61,-81,-60v-96,3,-140,70,-165,155v89,-1,181,0,226,-43v13,-13,20,-30,20,-52","w":754},"\u00e7":{"d":"230,-52v40,1,92,-24,116,-41r19,50v-30,27,-82,49,-129,55r-25,31v36,4,62,28,62,70v0,82,-90,109,-179,91r17,-39v42,3,92,0,92,-38v0,-31,-40,-37,-77,-37r57,-78v-88,-9,-133,-68,-133,-160v0,-165,66,-281,173,-339v62,-34,153,-30,210,-2r-28,62v-43,-23,-119,-32,-163,2v-64,50,-110,136,-112,246v-1,78,31,125,100,127","w":420},"\u00e8":{"d":"344,-571r-43,0r-81,-128r4,-21r91,0xm228,-52v54,0,109,-23,137,-45r24,48v-41,36,-107,60,-178,61v-107,1,-161,-67,-161,-174v1,-159,65,-270,168,-326v32,-16,65,-24,98,-24v84,1,139,39,139,120v0,47,-24,84,-69,112v-52,32,-155,45,-253,38v-22,89,-1,190,95,190xm378,-389v0,-41,-29,-60,-74,-59v-90,2,-134,67,-157,150v80,-1,166,-2,209,-40v15,-12,22,-29,22,-51","w":463},"\u00e9":{"d":"375,-720r84,0r-5,21r-123,128r-44,0xm228,-52v54,0,109,-23,137,-45r24,48v-41,36,-107,60,-178,61v-107,1,-161,-67,-161,-174v1,-159,65,-270,168,-326v32,-16,65,-24,98,-24v84,1,139,39,139,120v0,47,-24,84,-69,112v-52,32,-155,45,-253,38v-22,89,-1,190,95,190xm378,-389v0,-41,-29,-60,-74,-59v-90,2,-134,67,-157,150v80,-1,166,-2,209,-40v15,-12,22,-29,22,-51","w":463},"\u00ea":{"d":"343,-732r30,0r66,182r-63,0r-24,-66r-6,-58r-34,58r-57,66r-68,0xm228,-52v54,0,109,-23,137,-45r24,48v-41,36,-107,60,-178,61v-107,1,-161,-67,-161,-174v1,-159,65,-270,168,-326v32,-16,65,-24,98,-24v84,1,139,39,139,120v0,47,-24,84,-69,112v-52,32,-155,45,-253,38v-22,89,-1,190,95,190xm378,-389v0,-41,-29,-60,-74,-59v-90,2,-134,67,-157,150v80,-1,166,-2,209,-40v15,-12,22,-29,22,-51","w":463},"\u00eb":{"d":"241,-604v-27,0,-46,-23,-46,-49v0,-28,18,-51,46,-51v28,0,48,23,47,51v0,26,-20,49,-47,49xm424,-604v-28,0,-46,-23,-46,-50v0,-27,18,-50,46,-50v29,0,47,22,47,50v0,28,-18,50,-47,50xm228,-52v54,0,109,-23,137,-45r24,48v-41,36,-107,60,-178,61v-107,1,-161,-67,-161,-174v1,-159,65,-270,168,-326v32,-16,65,-24,98,-24v84,1,139,39,139,120v0,47,-24,84,-69,112v-52,32,-155,45,-253,38v-22,89,-1,190,95,190xm378,-389v0,-41,-29,-60,-74,-59v-90,2,-134,67,-157,150v80,-1,166,-2,209,-40v15,-12,22,-29,22,-51","w":463},"\u00ec":{"d":"248,-571r-43,0r-81,-128r4,-21r91,0xm160,-500r75,0r-106,500r-75,0","w":259},"\u00ed":{"d":"265,-720r84,0r-5,21r-123,128r-44,0xm160,-500r75,0r-106,500r-75,0","w":259},"\u00ee":{"d":"234,-732r30,0r66,182r-63,0r-24,-66r-6,-58r-34,58r-57,66r-68,0xm160,-500r75,0r-106,500r-75,0","w":259},"\u00ef":{"d":"136,-604v-27,0,-46,-23,-46,-49v0,-28,18,-51,46,-51v28,0,48,23,47,51v0,26,-20,49,-47,49xm319,-604v-28,0,-46,-23,-46,-50v0,-27,18,-50,46,-50v29,0,47,22,47,50v0,28,-18,50,-47,50xm160,-500r75,0r-106,500r-75,0","w":259},"\u00f0":{"d":"304,-510v54,-1,76,15,100,40v1,-72,-18,-123,-61,-153r-55,76r-40,-22r54,-75v-27,-9,-62,-13,-97,-10r12,-58v47,-1,89,4,123,16r46,-63r39,24r-42,58v69,40,91,117,92,221v1,153,-29,274,-85,360v-41,62,-98,108,-183,108v-104,0,-156,-65,-156,-168v0,-148,60,-264,151,-324v31,-20,65,-30,102,-30xm395,-382v-13,-62,-111,-85,-163,-38v-59,54,-99,147,-101,256v-1,63,26,112,80,112v79,0,119,-63,145,-122v24,-56,38,-138,39,-208","w":496},"\u00f1":{"d":"297,-643v-27,0,-42,13,-63,29r-13,-42v33,-32,53,-58,97,-58v43,0,57,38,99,40v15,0,33,-8,54,-24r15,43v-30,29,-48,51,-88,51v-44,0,-57,-39,-101,-39xm368,-512v71,0,109,32,108,108v0,20,-3,44,-9,72r-71,332r-75,0r74,-352v9,-54,-2,-99,-61,-96v-65,4,-106,46,-138,84v-12,15,-21,29,-29,44r-66,320r-75,0r106,-500r52,0r-4,86r4,0v42,-49,94,-98,184,-98","w":522},"\u00f2":{"d":"356,-571r-43,0r-81,-128r4,-21r91,0xm212,12v-107,-1,-162,-65,-162,-168v0,-157,60,-273,160,-330v32,-17,66,-26,102,-26v105,1,154,65,154,168v0,153,-59,269,-154,328v-31,18,-64,28,-100,28xm372,-230v20,-85,36,-224,-75,-218v-55,3,-91,42,-117,83v-30,48,-50,116,-50,191v0,73,23,122,92,122v55,0,90,-44,114,-87v15,-27,28,-56,36,-91","w":498},"\u00f3":{"d":"377,-720r84,0r-5,21r-123,128r-44,0xm212,12v-107,-1,-162,-65,-162,-168v0,-157,60,-273,160,-330v32,-17,66,-26,102,-26v105,1,154,65,154,168v0,153,-59,269,-154,328v-31,18,-64,28,-100,28xm372,-230v20,-85,36,-224,-75,-218v-55,3,-91,42,-117,83v-30,48,-50,116,-50,191v0,73,23,122,92,122v55,0,90,-44,114,-87v15,-27,28,-56,36,-91","w":498},"\u00f4":{"d":"343,-732r30,0r66,182r-63,0r-24,-66r-6,-58r-34,58r-57,66r-68,0xm212,12v-107,-1,-162,-65,-162,-168v0,-157,60,-273,160,-330v32,-17,66,-26,102,-26v105,1,154,65,154,168v0,153,-59,269,-154,328v-31,18,-64,28,-100,28xm372,-230v20,-85,36,-224,-75,-218v-55,3,-91,42,-117,83v-30,48,-50,116,-50,191v0,73,23,122,92,122v55,0,90,-44,114,-87v15,-27,28,-56,36,-91","w":498},"\u00f5":{"d":"272,-643v-27,0,-42,13,-63,29r-13,-42v33,-32,53,-58,97,-58v43,0,57,38,99,40v15,0,33,-8,54,-24r15,43v-30,29,-48,51,-88,51v-44,0,-57,-39,-101,-39xm212,12v-107,-1,-162,-65,-162,-168v0,-157,60,-273,160,-330v32,-17,66,-26,102,-26v105,1,154,65,154,168v0,153,-59,269,-154,328v-31,18,-64,28,-100,28xm372,-230v20,-85,36,-224,-75,-218v-55,3,-91,42,-117,83v-30,48,-50,116,-50,191v0,73,23,122,92,122v55,0,90,-44,114,-87v15,-27,28,-56,36,-91","w":498},"\u00f6":{"d":"236,-604v-27,0,-46,-23,-46,-49v0,-28,18,-51,46,-51v28,0,48,23,47,51v0,26,-20,49,-47,49xm419,-604v-28,0,-46,-23,-46,-50v0,-27,18,-50,46,-50v29,0,47,22,47,50v0,28,-18,50,-47,50xm212,12v-107,-1,-162,-65,-162,-168v0,-157,60,-273,160,-330v32,-17,66,-26,102,-26v105,1,154,65,154,168v0,153,-59,269,-154,328v-31,18,-64,28,-100,28xm372,-230v20,-85,36,-224,-75,-218v-55,3,-91,42,-117,83v-30,48,-50,116,-50,191v0,73,23,122,92,122v55,0,90,-44,114,-87v15,-27,28,-56,36,-91","w":498},"\u00f7":{"d":"55,-374r424,0r0,72r-424,0r0,-72xm280,-459v-34,0,-58,-24,-58,-58v0,-35,23,-58,58,-58v35,0,58,23,58,58v0,34,-24,58,-58,58xm280,-93v-34,0,-58,-24,-58,-58v0,-35,23,-58,58,-58v35,0,58,23,58,58v0,34,-24,58,-58,58","w":480},"\u00f8":{"d":"312,-16v-64,41,-174,34,-217,-15r-40,45r-42,-38r50,-56v-36,-119,9,-262,64,-333v42,-54,100,-97,185,-99v47,0,81,14,106,36r36,-39r40,37r-44,50v41,114,-5,266,-58,337v-24,32,-50,56,-80,75xm284,-76v65,-56,106,-160,101,-282r-239,266v24,46,96,53,138,16xm234,-426v-66,54,-110,154,-103,276r238,-266v-24,-39,-96,-42,-135,-10","w":498},"\u00f9":{"d":"367,-571r-43,0r-81,-128r4,-21r91,0xm163,12v-70,0,-103,-36,-103,-108v0,-23,3,-50,10,-79r68,-325r75,0r-70,333v-11,51,-12,118,45,115v63,-3,103,-47,136,-85v12,-15,23,-30,31,-45r67,-318r75,0r-71,338v-3,16,-6,34,-8,52v-5,35,-8,73,-7,110r-59,0r0,-95r-4,0v-42,52,-95,107,-185,107","w":511},"\u00fa":{"d":"378,-720r84,0r-5,21r-123,128r-44,0xm163,12v-70,0,-103,-36,-103,-108v0,-23,3,-50,10,-79r68,-325r75,0r-70,333v-11,51,-12,118,45,115v63,-3,103,-47,136,-85v12,-15,23,-30,31,-45r67,-318r75,0r-71,338v-3,16,-6,34,-8,52v-5,35,-8,73,-7,110r-59,0r0,-95r-4,0v-42,52,-95,107,-185,107","w":511},"\u00fb":{"d":"356,-732r30,0r66,182r-63,0r-24,-66r-6,-58r-34,58r-57,66r-68,0xm163,12v-70,0,-103,-36,-103,-108v0,-23,3,-50,10,-79r68,-325r75,0r-70,333v-11,51,-12,118,45,115v63,-3,103,-47,136,-85v12,-15,23,-30,31,-45r67,-318r75,0r-71,338v-3,16,-6,34,-8,52v-5,35,-8,73,-7,110r-59,0r0,-95r-4,0v-42,52,-95,107,-185,107","w":511},"\u00fc":{"d":"256,-604v-27,0,-46,-23,-46,-49v0,-28,18,-51,46,-51v28,0,48,23,47,51v0,26,-20,49,-47,49xm439,-604v-28,0,-46,-23,-46,-50v0,-27,18,-50,46,-50v29,0,47,22,47,50v0,28,-18,50,-47,50xm163,12v-70,0,-103,-36,-103,-108v0,-23,3,-50,10,-79r68,-325r75,0r-70,333v-11,51,-12,118,45,115v63,-3,103,-47,136,-85v12,-15,23,-30,31,-45r67,-318r75,0r-71,338v-3,16,-6,34,-8,52v-5,35,-8,73,-7,110r-59,0r0,-95r-4,0v-42,52,-95,107,-185,107","w":511},"\u00fd":{"d":"338,-720r84,0r-5,21r-123,128r-44,0xm194,-176r5,96r5,0r38,-97r166,-323r80,0r-288,542v-30,54,-65,106,-108,141v-31,25,-75,28,-112,13r24,-69v34,10,56,0,82,-26v19,-20,41,-54,65,-101r-86,-500r80,0","w":439},"\u00fe":{"d":"308,-14v-56,33,-144,32,-194,6r-44,208r-75,0r193,-900r75,0r-62,274r4,0v38,-44,79,-86,160,-86v85,0,117,61,117,150v0,168,-68,286,-174,348xm386,-231v19,-70,40,-217,-49,-217v-65,0,-102,51,-133,92v-11,16,-19,31,-26,44r-49,237v38,31,105,29,149,1v51,-32,88,-88,108,-157","w":508},"\u00ff":{"d":"197,-604v-27,0,-46,-23,-46,-49v0,-28,18,-51,46,-51v28,0,48,23,47,51v0,26,-20,49,-47,49xm380,-604v-28,0,-46,-23,-46,-50v0,-27,18,-50,46,-50v29,0,47,22,47,50v0,28,-18,50,-47,50xm194,-176r5,96r5,0r38,-97r166,-323r80,0r-288,542v-30,54,-65,106,-108,141v-31,25,-75,28,-112,13r24,-69v34,10,56,0,82,-26v19,-20,41,-54,65,-101r-86,-500r80,0","w":439},"\u0152":{"d":"173,-402v-35,146,-28,347,141,342v46,-1,83,-5,121,-17r114,-541v-64,-30,-180,-30,-241,10v-67,44,-113,116,-135,206xm283,-677v76,-41,188,-23,284,-23r362,0r-16,74r-282,0r-49,229r258,0r-15,74r-259,0r-52,249r287,0r-15,74r-367,0v-38,8,-61,12,-109,12v-162,-3,-239,-98,-238,-268v1,-201,78,-349,211,-421","w":888},"\u0153":{"d":"374,-230v20,-86,34,-224,-77,-218v-55,3,-91,42,-117,83v-30,48,-50,116,-50,191v0,73,23,122,92,122v55,0,92,-44,116,-87v15,-27,27,-57,36,-91xm532,12v-80,0,-126,-45,-145,-107v-32,55,-97,107,-175,107v-107,0,-162,-65,-162,-168v0,-157,60,-273,160,-330v32,-17,66,-26,102,-26v83,-1,123,45,139,110v38,-60,100,-110,186,-110v84,0,139,39,139,120v0,47,-24,84,-69,112v-52,32,-155,45,-253,38v-20,90,-1,190,95,190v54,0,109,-23,137,-45r24,48v-41,36,-107,61,-178,61xm699,-389v0,-41,-29,-60,-74,-59v-90,3,-133,67,-157,150v81,-2,166,0,210,-40v14,-12,21,-29,21,-51","w":784},"\u0178":{"d":"241,-278r-133,-422r87,0r89,306v2,20,0,43,4,61r30,-63r217,-304r90,0r-304,421r-59,279r-80,0xm303,-748v-29,0,-51,-19,-51,-46v0,-27,22,-47,51,-47v29,0,50,20,50,47v0,28,-21,46,-50,46xm485,-748v-29,0,-50,-18,-50,-46v0,-27,21,-47,50,-47v29,0,51,20,51,47v0,27,-22,46,-51,46","w":531},"\u02c6":{"d":"461,-732r30,0r66,182r-63,0r-24,-66r-6,-58r-34,58r-57,66r-68,0","w":431},"\u02dc":{"d":"401,-643v-27,0,-42,13,-63,29r-13,-42v33,-32,53,-58,97,-58v43,0,57,38,99,40v15,0,33,-8,54,-24r15,43v-30,29,-48,51,-88,51v-44,0,-57,-39,-101,-39","w":349},"\u2013":{"d":"129,-322r403,0r-16,68r-403,0","w":627},"\u2014":{"d":"129,-322r555,0r-16,68r-555,0","w":779},"\u2018":{"d":"174,-667v25,-7,41,16,41,39v1,37,-19,58,-54,58v-58,2,-62,-77,-40,-120v21,-42,57,-73,99,-88r15,35v-29,14,-56,40,-61,76","w":186},"\u2019":{"d":"185,-708v65,-6,57,78,38,118v-20,42,-57,74,-99,90r-16,-34v29,-16,55,-40,62,-77v-27,-1,-40,-17,-40,-47v0,-31,25,-47,55,-50","w":187},"\u201a":{"d":"79,-99v65,-6,57,78,38,118v-20,42,-57,74,-99,90r-16,-34v29,-16,55,-40,62,-77v-27,-1,-40,-17,-40,-47v0,-31,25,-47,55,-50","w":189},"\u201c":{"d":"174,-667v25,-7,41,16,41,39v1,37,-19,58,-54,58v-58,2,-62,-77,-40,-120v21,-42,57,-73,99,-88r15,35v-29,14,-56,40,-61,76xm313,-667v25,-7,41,16,41,39v1,37,-19,58,-54,58v-58,2,-62,-77,-40,-120v21,-42,57,-73,99,-88r15,35v-29,14,-56,40,-61,76","w":325},"\u201d":{"d":"185,-708v65,-6,57,78,38,118v-20,42,-57,74,-99,90r-16,-34v29,-16,55,-40,62,-77v-27,-1,-40,-17,-40,-47v0,-31,25,-47,55,-50xm323,-708v65,-6,57,78,38,118v-20,42,-57,74,-99,90r-16,-34v29,-16,55,-40,62,-77v-27,-1,-40,-17,-40,-47v0,-31,25,-47,55,-50","w":325},"\u201e":{"d":"79,-99v65,-6,57,78,38,118v-20,42,-57,74,-99,90r-16,-34v29,-16,55,-40,62,-77v-27,-1,-40,-17,-40,-47v0,-31,25,-47,55,-50xm216,-99v65,-6,57,78,38,118v-20,42,-57,74,-99,90r-16,-34v29,-16,55,-40,62,-77v-27,-1,-40,-17,-40,-47v0,-31,25,-47,55,-50","w":327},"\u2022":{"d":"251,-172v-108,2,-163,-93,-128,-196v21,-62,104,-101,183,-72v50,19,84,61,84,129v0,87,-53,137,-139,139","w":452},"\u2026":{"d":"568,12v-34,0,-58,-24,-58,-58v0,-35,23,-58,58,-58v35,0,58,23,58,58v0,34,-24,58,-58,58xm326,12v-34,0,-58,-24,-58,-58v0,-35,23,-58,58,-58v35,0,58,23,58,58v0,34,-24,58,-58,58xm85,12v-34,0,-58,-24,-58,-58v0,-35,23,-58,58,-58v35,0,58,23,58,58v0,34,-24,58,-58,58","w":721},"\u2039":{"d":"56,-259r200,-230r44,48r-123,144r-56,37r33,39r68,141r-55,42","w":300},"\u203a":{"d":"283,-268r-200,230r-45,-43r124,-145r57,-41r-35,-42r-68,-142r57,-38","w":283},"\u20ac":{"d":"129,-311v3,-30,7,-58,14,-84r-63,0r33,-62r50,0v44,-115,121,-201,235,-240v75,-26,176,-17,230,14r-35,61v-34,-20,-123,-32,-177,-11v-80,30,-136,95,-172,176r275,0r-30,62r-266,0v-7,25,-12,55,-15,84r246,0r-30,62r-219,0v-1,121,46,193,167,193v45,0,90,-15,120,-32r14,60v-58,40,-181,55,-257,22v-83,-38,-127,-120,-124,-243r-75,0r32,-62r47,0"},"\u2122":{"d":"440,-632r-136,0r0,292r-78,0r0,-292r-136,0r0,-68r350,0r0,68xm822,-507r10,-103r-4,0r-39,85r-87,140r-33,0r-89,-139r-36,-86r-4,0r13,102r0,168r-73,0r0,-360r78,0r105,168v10,19,17,41,29,58v38,-80,84,-151,127,-226r79,0r0,360r-76,0r0,-167","w":886}}});
